-7.4784734014616410;-5.4118220372037475;-7.4955830402317698;-17.0474553046514465;-10.9860270335955210;14.8598745330882949;0.1506228902541578;7.2858210906156087
-11.7850890990062318;13.5724196118216778;-3.3076771543900234;-3.1655047069135676;5.3510764308353327;-9.0372025380015426;6.2739835634259613;-2.4013462611310818
11.5540992218235488;4.6575742541030047;-3.7720728903885221;12.1514761417394830;5.3541581342420272;-3.6154113940572237;1.7072321886027686;-13.8952236789993755
-7.0399728525038778;6.8994710189864161;8.9574975569368931;-10.5468584855998433;-5.7543833327617149;-11.3677448102283183;2.0320348544514557;4.5753871020320309
4.6167300898251282;9.0019040839485065;1.6838607854543088;2.7050125764839765;-0.6491071195348282;-8.8328213121324222;1.2968586463469920;-1.0105364719054766
12.2331071416738535;3.1383895169389544;-0.5255563281394694;12.3081920494689125;2.7133252508781007;-2.5822828735697692;1.0602830219560258;-11.0937722704542701
11.9103450619088882;2.0687167605262355;-0.3075464421603582;14.3205846739288347;1.7743378284274538;-1.8124429901246435;0.3547289627769347;-7.0916218472067616
-3.7680827614187833;-12.1454494626015457;-8.8400047343316697;-1.7341304067458991;7.1977660374050680;17.4838169012058806;0.6323814574651508;-21.8553528673386026
-7.8187061193884357;-2.1087280922423108;2.6652285409360492;-7.4397717782864428;-0.2283099138411908;0.1550431798244900;1.2316826213061229;4.8163837124528497
-5.0716775359992567;-6.5715761075196788;-2.0007395316491885;-2.6511340762979860;1.5578543604347368;7.7634208487179110;1.5090266365135410;-4.0735202121434346
6.7026174626506476;-13.9518496857749206;13.2802101198722777;1.7113522383532094
-7.7940500175169491;11.9799639767741066;-11.2904783741596990;-1.0859292196814720
0.1107266760594617;-0.7383271451873734;-2.2278981531830904;6.8688151805627431
14.6006495308751845;-1.0215514743086531;-18.2263131957901656;-18.3132125913254171
-7.6096876794052717;-12.2610409240498495;8.4147104071387826;4.3971098066673902
13.3663576331382465;-12.4309286688325997;-15.8795994301014431;-15.1299286385169296
-0.4672127732643651;-3.4855874204149577;4.1291642084074986;-5.2632673357340796
8.9141249490095706;-10.5178441104170748;10.2959316283179039;1.0566492094570452
