-1.8661839828555766;-1.9312616900766284;-7.1672928870987240;-10.1910065535154661;-3.6712951770245708;2.6391120868215121;11.0031298299422282;-11.9910981823019238
-0.3772878140354580;4.0851034610611512;2.8341978418074989;10.7646034086182283;6.6251634323200257;1.0283273317578006;-6.3436809553587130;-8.5270997416545669
3.7701110456019129;1.6609343849178539;2.4404962366377774;-0.8277210093649006;-0.4341953567743332;1.6454456443824825;0.7357552672709982;0.6156423090793423
-2.4210226098571690;-1.0601869678364308;-1.9390895486780484;-2.9545598851776380;1.8437304233548413;1.7634239781838095;0.3221905730950324;1.3943601273596169
9.6226843324605547;4.0487070699781054;4.6331080651715473;3.1404856470282225;-5.3755445146770837;0.5536226247907353;1.6043653139041842;-0.1533814945331597
-8.8142643104576788;-1.8777296701407080;-8.5397378148566254;-12.1085643059123083;5.6180380098064244;5.7081800246050785;-0.5212710937545275;2.2118826817363924
-6.7584201162959259;-3.9664464936010067;-5.6822765481967457;-3.8887130245492303;3.6839077737170030;1.8490189527693337;1.0168111636493993;0.9752077518708097
3.8026561079398142;0.4132550407503184;5.4671913845153206;2.8456098836872226;-1.4705841652311693;-2.6876808659740097;2.0651695851763425;1.5993154358217927
5.6943334537054158;0.8310333904320327;8.3505204023208393;11.5369880530314166;-3.2217674245723851;-5.4352172231047158;1.2907900576056692;0.5088846240883694
14.9519115266285390;7.2670252912195981;14.6185275251045095;2.5297033556433628;-6.9363173783072964;0.9131488491034228;1.5003311716327585;0.5068928044420088
7.1354573609442751;-7.0935970839880556;-8.8227636942007610;-7.1380476962166455
5.5003167918931082;-2.3498524382895472;0.3377138732628703;-2.3287563001295868
2.6115268088734673;-5.5978177323998688;11.2984813755172446;2.9006535145426326
6.5483791382492162;-8.0002458863592434;-8.2620736209292485;-7.7096793728559314
-4.9309297104361418;4.1912057418668383;1.7394398311304504;2.6434708250356689
-1.3551117460777851;5.2353519832409212;-2.6720944590246929;0.5491599225906206
1.2595726995168148;-2.7921928483275762;-1.5879338189524368;-1.7973527453109586
-2.5101729983342835;-1.7837300289816005;-3.6641648042391655;-2.4044768698190797
