0.2121821668900028;2.6227860698772458;-5.1261154086523701;2.6156947515604232;0.7223844009774775;1.3665830934615741;0.6003090076453247;1.9569598452942452
4.0268039809597065;-6.0805687797437908;-3.6222784329595350;1.6226361022666276;5.0048365589017534;2.1007683300532660;5.2170058235311565;1.9452797650821498
0.2625159133143716;5.5720035496276683;0.0625063002110328;3.3638053071750789;0.3617481996417536;4.3946431536640773;5.3949830390215388;4.3116894916878286
1.1031469151294175;-5.9021675075729387;1.6482249474220321;-4.5322802969129148;1.2385054335777685;-9.0612611860862557;-9.9668112769200228;-10.0010563451052956
0.7044946183663015;-6.9000316495987528;0.8613655230134923;-4.5212247576125026;1.4918313838540056;-8.3231361453593671;-9.9801506063480261;-9.4392983348117632
-0.0802576395806776;-1.8816801840268262;1.1069853244447754;-0.3145550361875606;1.1042900987324935;2.7575765066136086;0.7956318547070721;-1.7484308180622490
0.3709361745430176;5.4586916115011226;0.8111592881638368;3.1434166867537785;1.0484275491804980;6.8718583568383549;8.3250177192095105;7.9860920749284938
1.2058856841349279;-4.9007290903237308;1.2049326085228906;-1.1451200124231926;-0.4364735655391350;0.2971250026326098;-0.6205821286496854;-2.9658519082053201
0.6721871336939366;7.4148290148649005;1.0429319246899860;4.4492689912911239;0.7704855939361107;7.1707227511057026;9.1365612867922259;8.1176314052121921
0.9973297021635200;-1.8681700484034702;0.6951211847092127;-1.3572529124762132;0.8765910936722909;0.4102657462128621;-0.4955498397059526;-1.0747222238730536
-0.8626911485726974;1.2105080985126793;-2.7150206762256159;-0.3582982772761805
-11.0436910845727780;5.2449684070128777;-0.5461631640324399;-2.1354755790443010
-2.1911832244190630;1.8157713786155982;-3.1742198485187916;-1.1974670699868268
5.3206767241868436;-3.6648829233209876;-0.0093349278040957;1.0433757841086864
-1.0006912877162579;2.0467319753062099;-4.6590929051627121;-2.5275035323002539
9.7744453842159782;-8.5157479333955894;1.4088727414376883;3.4022611400267619
-10.9148952051971957;-10.7756777210906005;13.1663635015877869;0.6291789077705221
6.2443440292218053;17.1487238458477158;-14.6439615258849773;-2.2819593483015401
