1.7380197760792069;-1.5385297797482302;-0.6216386825139444;-14.2660848739570891;-2.5159254436160876;-19.9286684071546993;-9.1191498076318656;14.0986810228846640
3.3438853910102915;6.7494265303170335;4.9997997829963303;-1.5605073865079440;2.1985361056553350;-8.9805827835630030;4.7788604372782908;-8.4533481356508151
-6.8806193765894150;-5.1976762227485667;-6.9842340021212088;0.2742641035334800;1.6343822612014522;-1.7216668039782703;-0.4543998334662405;0.1176245176921086
11.0667411790082131;5.8057401226260676;-5.5133979982716630;5.4049955717693061;1.3781031807908413;-7.3546404967653300;-7.4321905354371607;0.1172168500674750
10.6404469792648211;2.4510430724546080;-1.3199228020872082;4.0565262762578209;0.4045899498521364;-4.1695596704024016;-5.5695961412204777;1.4339184204112609
1.4560956250330634;12.5987507713983575;-4.1794641337171425;4.5315767000765206;0.4755177423719484;-3.1262646762614459;7.9674245422569161;-11.1079575252802325
-6.3032667838043626;-1.6579537538512386;-0.8819870955249091;-0.1116138415090971;1.4223576480971545;-0.2286005009665089;3.4988593137025217;-4.9669418014701936
-17.4776090237894586;-12.4305401352211735;18.5049526380913427;-7.5111400584132051;0.5710920262722518;16.4200808139508716;-4.2771823986029345;2.4634751586985217
-2.8832579518897408;-5.8479675797293291;12.1260534094113108;0.3163366479193023;-0.1635096995640585;6.9818144376519937;4.5943140596057637;-7.6948818001942252
-14.9988406766552789;-10.9472326187333540;6.8577095055349737;-8.8252976133430501;0.9081770743245998;11.3319825407833488;-8.6048942077021984;17.2170289172279425
5.2918253551153329;14.5516838089433005;1.6665642861329284;-8.2922247255723640
2.8647438479657761;-19.0309345239647278;-5.3786698508205104;12.0514708648736804
13.3142082847910075;-5.3270870983106260;-4.3494399337589833;-5.6657836141618505
-3.3182603626389442;1.6766944517954401;9.5538477651018425;0.4593128198440543
-2.3814883407633061;4.1539912074317318;-5.0065040630332884;-4.6825258275788197
7.9592459937356921;-5.4363145877588295;-19.3645972804413447;-7.9867644120044909
-4.5677145956954144;2.7236316652789774;1.8953085385170845;-4.5472195263350610
10.1311043450315328;-6.5718406083429377;-14.4774819453145227;-8.7960955411183690
